Language model created by QuickLM on Mon Sep 11 11:54:29 EDT 2017
Copyright (c) 1996-2010 Carnegie Mellon University and Alexander I. Rudnicky

The model is in standard ARPA format, designed by Doug Paul while he was at MITRE.

The code that was used to produce this language model is available in Open Source.
Please visit http://www.speech.cs.cmu.edu/tools/ for more information

The (fixed) discount mass is 0.5. The backoffs are computed using the ratio method.
This model based on a corpus of 7 sentences and 9 words

\data\
ngram 1=9
ngram 2=14
ngram 3=7

\1-grams:
-0.7782 </s> -0.3010
-0.7782 <s> -0.2218
-1.6232 BLACK -0.2218
-1.6232 BLUE -0.2218
-1.6232 ORANGE -0.2218
-1.6232 PURPLE -0.2218
-1.6232 RED -0.2218
-1.6232 WHITE -0.2218
-1.6232 YELLOW -0.2218

\2-grams:
-1.1461 <s> BLACK 0.0000
-1.1461 <s> BLUE 0.0000
-1.1461 <s> ORANGE 0.0000
-1.1461 <s> PURPLE 0.0000
-1.1461 <s> RED 0.0000
-1.1461 <s> WHITE 0.0000
-1.1461 <s> YELLOW 0.0000
-0.3010 BLACK </s> -0.3010
-0.3010 BLUE </s> -0.3010
-0.3010 ORANGE </s> -0.3010
-0.3010 PURPLE </s> -0.3010
-0.3010 RED </s> -0.3010
-0.3010 WHITE </s> -0.3010
-0.3010 YELLOW </s> -0.3010

\3-grams:
-0.3010 <s> BLACK </s>
-0.3010 <s> BLUE </s>
-0.3010 <s> ORANGE </s>
-0.3010 <s> PURPLE </s>
-0.3010 <s> RED </s>
-0.3010 <s> WHITE </s>
-0.3010 <s> YELLOW </s>

\end\
